function [Y,Xf,Af] = TRACE_Preformed_Si_1_Atl_3(X,~,~)
%TRACE_PREFORMED_SI_1_ATL_3 neural network simulation function.
%
% Auto-generated by MATLAB, 21-Aug-2024 10:13:39.
% 
% [Y] = TRACE_Preformed_Si_1_Atl_3(X,~,~) takes these arguments:
% 
%   X = 1xTS cell, 1 inputs over TS timesteps
%   Each X{1,ts} = 6xQ matrix, input #1 at timestep ts.
% 
% and returns:
%   Y = 1xTS cell of 1 outputs over TS timesteps.
%   Each Y{1,ts} = 1xQ matrix, output #1 at timestep ts.
% 
% where Q is number of samples (or series) and TS is the number of timesteps.

%#ok<*RPMT0>

% ===== NEURAL NETWORK CONSTANTS =====

% Input 1
x1_step1.xoffset = [-0.999961923064171;-0.999961923064171;-39.5;0;30.0316562652588;-2.96613502502441];
x1_step1.gain = [1.00003807838574;1.00003807838574;0.0155038759689922;0.000363636363636364;0.207805673664695;0.0607333297500273];
x1_step1.ymin = -1;

% Layer 1
b1 = [4.1713219464819433213;0.15196812639639090126;-1.4747954281167297008;5.272962836669724318;-19.708757964805577956;-0.28809373158072504317;3.2018599973906751721;1.3491785985204727272;-25.681630889049547051;0.031814192027227315707;0.45630145535809046864;-9.6139232874030664533;0.56938672065745932205;-4.2814469735171289955;-4.4811461143265036711];
IW1_1 = [-1.9324273157935252243 1.7962902283274961857 0.78213659235160359895 1.1638007684098079508 6.4870430933073244262 1.0613397199354819289;-0.15501063178900176265 0.17511649988633629094 -0.55184681123074097453 0.67207067704353551374 -1.3952959763956713779 0.99792844302337246898;-1.7522148356931401825 1.9697449390054566631 -0.12947941403533044791 -6.9730145188850940485 -0.48123206739574264645 4.7512705311540264219;-4.6447332616782182058 6.2530766071695751407 -0.92165066778020676708 1.8407078986663054643 4.3736666826402945674 -3.5218859505635040641;-14.115278196806047006 7.1955233807582059669 17.230211593405670101 7.681053958578607066 -16.048470557298802674 -0.38298967460590660483;1.1721245333715089032 -0.22616416061257119119 1.33041635966639471 0.2527169567349960011 1.620071887528822252 1.8749804467435169375;-2.127178853668929559 0.97458748579277809654 -2.0591538605327919242 -2.4279595709755819044 -2.7263587097308517038 3.0637188891010116443;-0.014782267663194938179 -0.067542036871394317554 -0.84526016600842002191 1.3715146738318511055 -1.9786240565803385749 2.9560701315409607659;8.3660950852432680591 -19.589407446108420885 -7.7057174635420198072 -8.4921315078887218419 17.175244580239752423 -32.308874050638237918;-0.40922022885728709385 0.14744307647914733916 -0.99794366658066968601 0.1483031975971005334 -2.2075694049080056836 -0.061137421386504062215;-0.18680833972106811181 0.33604784889968675188 -1.5427948728692175706 -0.81512278861358433701 -1.4534575060988237372 2.1592359755886105788;-3.8495380331224753334 5.2668243592911974105 3.0252522356844937512 -15.439425172533006503 -2.1369152376685067729 3.4239471585872851556;1.7333948339800346883 -0.67745661262497625099 3.2051027653136059392 0.67761912292647874523 0.76544130648389330229 2.6440887604507641306;0.99450505891257068303 -0.30131440093664457747 0.33875103877034284938 -2.9681919065799142743 -3.7507405182859816506 0.68562029333001750508;-3.1674591089356196605 2.1407704939524401233 -6.7166567681435989101 -8.1516630810881576252 -10.584191672034565457 2.6834609468998200654];

% Layer 2
b2 = [121.04443640578057284;-5.6588792338169326968;-0.86884761103872854004;58.317612759062711802;2.6631019674357694349];
LW2_1 = [-116.58917893045322955 19.775473511889487099 253.26536369245172864 -151.65248010852602079 22.729840045547440752 89.039702767705719566 -255.06248096825999028 -28.166799712629043029 39.193225341714544641 -22.611472184188677659 37.305419286929044631 66.099583082526578437 -141.50491074956721604 -1.6272518307815364569 -14.642824770164613923;2.6018086853947193227 -18.098356171943020598 -0.82459584007150188434 -0.25877323176534594573 0.17218904391744113691 2.5724293728037537221 -1.109487008153190235 0.60898910639774406217 -0.11074718729031822473 16.04979508734757232 -0.17389649925344913273 -1.0608907655850801088 2.775483995656017111 0.51511022269815198715 0.75478779325504263831;-0.40204789796810613822 -25.759512408518730808 46.376166271603189273 6.7469304234154829913 -47.352929618609202578 6.192090779879628748 -94.483656084682436926 17.492235205043428437 5.8812499219154874552 -2.1555025074787308448 19.02682630355834803 10.34128027914490211 -28.53690956465194617 -12.90659917537810486 -23.762297920429858777;-125.95513502464046951 -3.3023622175843310167 20.221155991302712351 -16.18350090443595235 -10.516693772245870875 -9.6117981463737276471 -37.462092078318590893 5.1388782816685116828 21.039085661164715901 -12.454468405868576397 -8.8102063450468826034 8.8957847577879807233 -25.330464776792535275 -88.038481573140629166 14.449746207254536401;0.72752231347972196041 -3.6445178584827648827 0.02645166465271240816 -0.068133721612655059885 0.036515125822712629633 -0.42732225629786413368 -0.30332311524152549831 1.4980521239767696784 0.0060049593373748258104 -0.49895313814971758992 1.2074779317521571187 -0.12421816785671910277 -0.13415939364844592374 1.9112149509687867965 -0.28340865297924644484];

% Layer 3
b3 = 15.811055218240303688;
LW3_2 = [-0.018367491500342728733 0.066120562497894316834 -0.0086937014822514157436 0.010998313709203103375 -16.639297460642016091];

% Output 1
y1_step1.ymin = -1;
y1_step1.gain = 0.0510398195720568;
y1_step1.xoffset = -0.473623931407928;

% ===== SIMULATION ========

% Format Input Arguments
isCellX = iscell(X);
if ~isCellX
  X = {X};
end

% Dimensions
TS = size(X,2); % timesteps
if ~isempty(X)
  Q = size(X{1},2); % samples/series
else
  Q = 0;
end

% Allocate Outputs
Y = cell(1,TS);

% Time loop
for ts=1:TS

    % Input 1
    Xp1 = mapminmax_apply(X{1,ts},x1_step1);
    
    % Layer 1
    a1 = tansig_apply(repmat(b1,1,Q) + IW1_1*Xp1);
    
    % Layer 2
    a2 = tansig_apply(repmat(b2,1,Q) + LW2_1*a1);
    
    % Layer 3
    a3 = repmat(b3,1,Q) + LW3_2*a2;
    
    % Output 1
    Y{1,ts} = mapminmax_reverse(a3,y1_step1);
end

% Final Delay States
Xf = cell(1,0);
Af = cell(3,0);

% Format Output Arguments
if ~isCellX
  Y = cell2mat(Y);
end
end

% ===== MODULE FUNCTIONS ========

% Map Minimum and Maximum Input Processing Function
function y = mapminmax_apply(x,settings)
  y = bsxfun(@minus,x,settings.xoffset);
  y = bsxfun(@times,y,settings.gain);
  y = bsxfun(@plus,y,settings.ymin);
end

% Sigmoid Symmetric Transfer Function
function a = tansig_apply(n,~)
  a = 2 ./ (1 + exp(-2*n)) - 1;
end

% Map Minimum and Maximum Output Reverse-Processing Function
function x = mapminmax_reverse(y,settings)
  x = bsxfun(@minus,y,settings.ymin);
  x = bsxfun(@rdivide,x,settings.gain);
  x = bsxfun(@plus,x,settings.xoffset);
end
