function [Y,Xf,Af] = TRACE_Preformed_P_1_Other_4(X,~,~)
%TRACE_PREFORMED_P_1_OTHER_4 neural network simulation function.
%
% Auto-generated by MATLAB, 21-Aug-2024 10:13:39.
% 
% [Y] = TRACE_Preformed_P_1_Other_4(X,~,~) takes these arguments:
% 
%   X = 1xTS cell, 1 inputs over TS timesteps
%   Each X{1,ts} = 6xQ matrix, input #1 at timestep ts.
% 
% and returns:
%   Y = 1xTS cell of 1 outputs over TS timesteps.
%   Each Y{1,ts} = 1xQ matrix, output #1 at timestep ts.
% 
% where Q is number of samples (or series) and TS is the number of timesteps.

%#ok<*RPMT0>

% ===== NEURAL NETWORK CONSTANTS =====

% Input 1
x1_step1.xoffset = [-0.999961923064171;-0.999961923064171;-77.5;0;30.1649227142334;-2.9811577796936];
x1_step1.gain = [1.00003807838574;1.00003807838574;0.0119760479041916;0.000363636363636364;0.22152510192902;0.0532708976942295];
x1_step1.ymin = -1;

% Layer 1
b1 = [-0.85040884445915287948;-0.79467458034982318971;0.97570796774167722898;-1.2573829877328159821;-0.31857476426773234657];
IW1_1 = [-0.032723283419840307196 -0.021958321467963264756 -0.21861776050769743396 0.1149899784301250949 1.0790376725337020858 -0.27401879559068664793;-0.069539962875550614951 -0.11280980274185058165 -0.71695661730112525412 -0.65447768865549937889 -0.73333015691331493446 0.22474226136840350088;-1.3532550394453828346 0.17003866759227928562 -1.5200348235023948273 0.046680422706637525465 -1.3742674675974231313 -0.60862126532114546595;-0.048010111456860772583 -0.029362721113718126542 -0.30275183400194422001 0.17883226574828661737 0.47964307153786117643 -1.0708219702973784671;-0.063185923051811684892 -0.1457451669650584869 -0.16351769515404837585 -1.0176047881670864381 -1.2351914904355445479 1.7508798977474844261];

% Layer 2
b2 = [1.6201092478485861204;2.8931236416572119197;-2.1567336587776080314;-14.712042284073399756;9.948562867756502115;5.7131447313683461076;8.3797428356013181627;-2.8056664585332056205;3.3567543838650668597;5.4734257933151200248;14.260321857584173699;-2.1604288847444936827;2.7327382516028366766;-1.8360945633039804648;-38.887222702968664123];
LW2_1 = [-3.3785482344524861986 -2.0534655077284011959 -6.6771317921939603579 -7.5855280989050344331 -4.8264267568992611501;2.6161970180582385659 2.7565692648053925495 0.44173524958670185026 6.7397208637300902723 4.328114995167620549;-6.3278323355712782217 -0.44650537169280191119 -0.059225091839296861718 6.3431767766177928891 -0.79051578207333883519;-4.0990709189221536946 4.1453392212835868946 0.14946825730219684414 -16.112887812137390853 -6.9242271225564202553;5.2608993924790103947 -0.12400434144735131281 -3.2075296024468378242 7.4071169722103640254 1.1519068624275603518;8.6850402320912198917 4.6817268973733012771 -1.8650716296302869424 -7.785461610699774937 -4.6366530123314193546;14.885209386278443588 -0.44036796182739040839 -1.6154372253066053844 -4.790863384651322221 1.702786520547189042;0.32099646406720699909 2.3868051405507997309 -0.67239411663114800888 -4.3063671159427983071 -1.2425464733556961239;-1.2959724665246226127 -3.2336184533257026352 0.65952829292587245025 5.9803043034479674844 1.9342641646912070996;9.9185861751608275227 -1.6828949026523563059 0.31617007678366704226 -3.9830843131623829834 0.89828488946124485093;32.51254094810373374 1.289222527856785927 -1.1154096362340417681 -17.946293921401455407 -0.98966680132405870918;-1.8265387385692766209 -1.7904346797211487807 -1.4924762444146704166 -7.4741302885784808296 -4.4835685434592740251;-3.2635601757610426255 -0.84335089346205915906 -1.0412727806307022771 6.3805809118903624721 1.3991802695130652889;0.42533695137754135018 1.2099642521327786948 0.36918770686854229801 -4.3705145344726021861 -0.72211197227641732432;-12.713730566939398514 35.837842496495667888 1.8495376268252678997 -23.671603870999692987 -27.259267478604840562];

% Layer 3
b3 = -1.7139753746302706094;
LW3_2 = [0.94986085999920821799 -2.8986853454527254925 0.71335833369809109605 0.1106489273299133963 -0.18172058919621025819 0.62385176984472379136 -0.20638542677193008612 -3.9732757675908665362 -3.3797112387253172017 1.557047079951226376 -0.2491305844238420053 -4.3071829742878380287 1.359098605723267017 1.4404868410486666441 0.12296504413333358974];

% Output 1
y1_step1.ymin = -1;
y1_step1.gain = 0.683263173544107;
y1_step1.xoffset = -0.138191044330597;

% ===== SIMULATION ========

% Format Input Arguments
isCellX = iscell(X);
if ~isCellX
  X = {X};
end

% Dimensions
TS = size(X,2); % timesteps
if ~isempty(X)
  Q = size(X{1},2); % samples/series
else
  Q = 0;
end

% Allocate Outputs
Y = cell(1,TS);

% Time loop
for ts=1:TS

    % Input 1
    Xp1 = mapminmax_apply(X{1,ts},x1_step1);
    
    % Layer 1
    a1 = tansig_apply(repmat(b1,1,Q) + IW1_1*Xp1);
    
    % Layer 2
    a2 = tansig_apply(repmat(b2,1,Q) + LW2_1*a1);
    
    % Layer 3
    a3 = repmat(b3,1,Q) + LW3_2*a2;
    
    % Output 1
    Y{1,ts} = mapminmax_reverse(a3,y1_step1);
end

% Final Delay States
Xf = cell(1,0);
Af = cell(3,0);

% Format Output Arguments
if ~isCellX
  Y = cell2mat(Y);
end
end

% ===== MODULE FUNCTIONS ========

% Map Minimum and Maximum Input Processing Function
function y = mapminmax_apply(x,settings)
  y = bsxfun(@minus,x,settings.xoffset);
  y = bsxfun(@times,y,settings.gain);
  y = bsxfun(@plus,y,settings.ymin);
end

% Sigmoid Symmetric Transfer Function
function a = tansig_apply(n,~)
  a = 2 ./ (1 + exp(-2*n)) - 1;
end

% Map Minimum and Maximum Output Reverse-Processing Function
function x = mapminmax_reverse(y,settings)
  x = bsxfun(@minus,y,settings.ymin);
  x = bsxfun(@rdivide,x,settings.gain);
  x = bsxfun(@plus,x,settings.xoffset);
end
