function [Y,Xf,Af] = TRACE_Preformed_N_1_Other_4(X,~,~)
%TRACE_PREFORMED_N_1_OTHER_4 neural network simulation function.
%
% Auto-generated by MATLAB, 21-Aug-2024 10:13:40.
% 
% [Y] = TRACE_Preformed_N_1_Other_4(X,~,~) takes these arguments:
% 
%   X = 1xTS cell, 1 inputs over TS timesteps
%   Each X{1,ts} = 6xQ matrix, input #1 at timestep ts.
% 
% and returns:
%   Y = 1xTS cell of 1 outputs over TS timesteps.
%   Each Y{1,ts} = 1xQ matrix, output #1 at timestep ts.
% 
% where Q is number of samples (or series) and TS is the number of timesteps.

%#ok<*RPMT0>

% ===== NEURAL NETWORK CONSTANTS =====

% Input 1
x1_step1.xoffset = [-0.999961923064171;-0.999961923064171;-77.5;0;30.1649227142334;-2.9811577796936];
x1_step1.gain = [1.00003807838574;1.00003807838574;0.0119760479041916;0.000363636363636364;0.22152510192902;0.0532708976942295];
x1_step1.ymin = -1;

% Layer 1
b1 = [-0.063926028049419672539;0.69734224746483652879;0.8430176085354822435;-0.49754991989678082343;-0.22888179587813856086];
IW1_1 = [0.081823577972122737978 0.13800752804399543661 0.064670694092976446776 1.0886037508071706448 1.2057056427274135402 -2.1132087500596457019;-1.0817170872855899066 0.7282491212821697868 -1.9056718431700068184 -0.46394706091156728833 -0.60758882603207275963 -1.2997857742376903722;0.37462217684079607283 0.38761899462685972528 -0.19541509701500506258 1.5648407856442057007 0.93782909472333919609 -1.3466767487225475008;-0.023177197354139159047 -0.011291762741901552672 -0.48440691652352296792 -0.17288874721019270586 0.3279902065913496978 -0.030503897962320801474;0.034780375725292252131 0.017958410669417054079 0.83187212750915906501 0.36381699651009180574 -2.6705804504763852592 -1.4841551647355144539];

% Layer 2
b2 = [-4.5501124091899720625;-2.4446672358125356439;-1.0309955524853839925;-1.5134332473275478037;1.3196883508192203127;1.8653538931257795941;2.2839964491712620998;0.15733650290771175606;0.46404833939144612964;-4.6479336118884857498;0.83388329464718524697;-3.8485635369242143788;-0.36749085294778055522;-0.19186761301286567316;9.2038958795526486512];
LW2_1 = [4.0738844377616105774 1.3699275604923837335 -2.7914628045548419699 -2.1980153106421931319 1.555659448348674756;-3.1871823753032995086 4.9506125372799800743 -0.47350066699297210793 1.1678373258405476687 3.7960234461813562312;-2.5720959124803290941 0.065744306070096750205 -0.20550883947463330359 9.3260876138158863569 0.43674039585035290267;1.6973174624731870441 -0.031232734608936614518 0.17526391034290533799 -5.2387835623835075083 0.42076610645621492779;2.1820992410257105121 0.59754676739947898412 -4.5302539642077555015 8.328215013993032656 1.7245946882774698672;-8.8533373580549792337 -0.44286338324496377084 6.7838925140273573788 5.9217667591568652341 4.7864772954961765095;-6.9781212309396458693 -0.5778012303150390494 2.2583002471088491347 6.9394932530567032813 2.9046836976742000935;4.9183507273935038739 1.7945575714705135351 -3.7916304760951944353 2.6556539397854970197 -2.9888983264345680979;-0.84693111614296856526 -0.23049801723970017586 0.44909043956050265223 2.9372630160496568941 1.3294779598527000086;6.5673980133053628805 5.4044004908311951141 -5.0275190532641147456 -9.1508162210994079544 0.12674648112740216632;0.51494173314137281494 -0.85606905751473683086 -1.5423176762160364373 -2.4344323708381927496 0.035588806325395724861;-0.59562406868789952163 -0.54608310229703582728 -1.6022113703967952869 -9.4429291614145949296 -0.80973800565120945816;1.0318923441896254989 0.28899149125626516499 -0.47120312350623311248 -2.4802451248716179677 -1.3600983588227286702;-4.5716025993041133901 -1.6353171685131402402 3.7074663963473746264 -2.5437025700214426216 2.5107442314966395003;4.9554693163642831166 -0.19958203420071113365 -3.9729340528060452797 15.160320206745836913 4.3765820124316112683];

% Layer 3
b3 = -0.29764488389979881777;
LW3_2 = [0.44792208332171534746 0.15468710860200948765 -0.31182414406908942617 0.33330155928384908037 0.12175855175758533433 0.16842474746638919081 0.14551109273283116541 0.91696611644408054786 6.6721827088856873189 -0.15684710085887090814 0.54358967755614728823 0.23936398276503939586 6.2715384799933797666 1.1168956207334659325 0.13670418101511369602];

% Output 1
y1_step1.ymin = -1;
y1_step1.gain = 0.0553271360105305;
y1_step1.xoffset = -0.497560739517212;

% ===== SIMULATION ========

% Format Input Arguments
isCellX = iscell(X);
if ~isCellX
  X = {X};
end

% Dimensions
TS = size(X,2); % timesteps
if ~isempty(X)
  Q = size(X{1},2); % samples/series
else
  Q = 0;
end

% Allocate Outputs
Y = cell(1,TS);

% Time loop
for ts=1:TS

    % Input 1
    Xp1 = mapminmax_apply(X{1,ts},x1_step1);
    
    % Layer 1
    a1 = tansig_apply(repmat(b1,1,Q) + IW1_1*Xp1);
    
    % Layer 2
    a2 = tansig_apply(repmat(b2,1,Q) + LW2_1*a1);
    
    % Layer 3
    a3 = repmat(b3,1,Q) + LW3_2*a2;
    
    % Output 1
    Y{1,ts} = mapminmax_reverse(a3,y1_step1);
end

% Final Delay States
Xf = cell(1,0);
Af = cell(3,0);

% Format Output Arguments
if ~isCellX
  Y = cell2mat(Y);
end
end

% ===== MODULE FUNCTIONS ========

% Map Minimum and Maximum Input Processing Function
function y = mapminmax_apply(x,settings)
  y = bsxfun(@minus,x,settings.xoffset);
  y = bsxfun(@times,y,settings.gain);
  y = bsxfun(@plus,y,settings.ymin);
end

% Sigmoid Symmetric Transfer Function
function a = tansig_apply(n,~)
  a = 2 ./ (1 + exp(-2*n)) - 1;
end

% Map Minimum and Maximum Output Reverse-Processing Function
function x = mapminmax_reverse(y,settings)
  x = bsxfun(@minus,y,settings.ymin);
  x = bsxfun(@rdivide,x,settings.gain);
  x = bsxfun(@plus,x,settings.xoffset);
end
