function [Y,Xf,Af] = TRACE_Preformed_O_1_Other_2(X,~,~)
%TRACE_PREFORMED_O_1_OTHER_2 neural network simulation function.
%
% Auto-generated by MATLAB, 21-Aug-2024 10:13:37.
% 
% [Y] = TRACE_Preformed_O_1_Other_2(X,~,~) takes these arguments:
% 
%   X = 1xTS cell, 1 inputs over TS timesteps
%   Each X{1,ts} = 6xQ matrix, input #1 at timestep ts.
% 
% and returns:
%   Y = 1xTS cell of 1 outputs over TS timesteps.
%   Each Y{1,ts} = 1xQ matrix, output #1 at timestep ts.
% 
% where Q is number of samples (or series) and TS is the number of timesteps.

%#ok<*RPMT0>

% ===== NEURAL NETWORK CONSTANTS =====

% Input 1
x1_step1.xoffset = [-0.999961923064171;-0.999961923064171;-77.5;0;30.1649227142334;-2.9811577796936];
x1_step1.gain = [1.00003807838574;1.00003807838574;0.0119760479041916;0.000363636363636364;0.22152510192902;0.0532708976942295];
x1_step1.ymin = -1;

% Layer 1
b1 = [-3.6027768199467620214;-1.5509319377462593703;-1.1433459971151225254;-3.3616933884247504061;-0.17237477531686859478;0.44433355722658168796;-1.2038276963865326419;-2.8989305002463314764;0.53132270831479200268;-3.1730718768553876075];
IW1_1 = [-0.098190022446702829306 -0.10615620637487710454 -0.58117266312110749116 0.14310237807057082926 -1.2457943527202737233 -3.6532976633814455703;-0.35777762330079815323 -0.036814647038091168063 1.4741835386157442489 -0.31657440765707700603 -1.9977591703809263191 -1.7011337157704067291;0.43668682444214768079 -0.24519979127294327936 0.066403469881514132211 -0.061771736836384177893 0.089749744078058774077 -0.26777744635122086025;-0.17977357408626121194 0.031781152523805498988 -0.029434228775957770041 -3.2295860631273844987 -0.45413191911543920876 0.42307281408060021244;-0.15477258230031762376 0.074444566573961687417 0.49904789197225718489 -0.23875992908041318574 -0.56463403784234156291 1.2850756159372573872;1.3262069593425418468 -0.66402126894378610267 -0.2190354036565348439 0.49324243945042467452 -0.013324383502396187559 0.16905330895799502988;0.13258505933006206612 -0.36191759787323185549 1.3395058874671905702 -2.0674911582707444779 1.2254093683769058387 -0.46746663956123712946;-0.16164117710126324479 -0.060618043219356203266 -0.8000053110257476785 0.22464816356400030273 2.8694810093888150071 -3.2744520786785185074;0.35059458269847021405 0.10906264985749491991 0.21954040123403698037 -0.053607836057001631569 0.39592032902599799682 -1.3945930655470852866;-0.76695532109265840415 -0.10681559111439881127 0.68084574070268333301 -3.400248055932753477 -0.096852408061451136789 0.80319845055762562058];

% Layer 2
b2 = [7.4476411641836417488;2.9480058971817446611;11.105876769181213248;-0.62852076715544846763;0.22203937515276056525;3.6575032485149572281;-2.5482373448226809387;4.6458277351461543248;-17.159449233360192011;5.3723394126053314324];
LW2_1 = [4.7818868942959857904 0.60299174713864212016 0.070199446496032893994 4.4351247664032742435 2.840975083171183968 0.28907515144498019399 -0.76607894929321340705 -2.7285116488630585252 -0.42396058919946022492 -1.5662169005523849385;3.3237910333452806988 0.8102225435424311728 4.088030815322558631 5.2672501479736615337 0.55455057218308989597 -0.22205312967488124998 -1.3519351494649682888 -3.6105240332437538164 3.4551962620462455256 0.034546164694406418516;-2.0615059817476790727 0.73291804070408983485 4.9534170062592846051 4.9653334539787916668 -0.48865051831364786361 0.10904785262026152337 -1.4996198401568181513 0.88417624714863862767 -6.1635945648990544399 -1.5827107512414331225;-3.3500734500787250347 -0.36732853796266401458 0.80239223214064425704 -0.96052662608778749398 0.28740943984724093285 -0.16515564632838372616 0.14983926475097225639 2.0143213151355201518 -0.80392021327620188931 0.15234060221138981395;2.9941534313831499325 0.30553099341969219838 -1.1020562858789371141 0.87871887274844151516 -0.54288603784318434364 0.10781990070879132748 0.040309972705270508131 -2.0343690283859117152 0.22796427107743227891 -0.31490167341117097921;1.830025169055977674 0.3566617365588087285 -0.84922791326816837731 2.2584591343399451624 1.434740795231673971 0.15777481124113634792 -0.10526901074407025993 -1.3697624244970607599 -1.6649967758105075344 -1.2549567442208215962;-6.0489070417407360125 -0.076138328853047651523 1.4183352423560036115 -3.9277610266211282486 3.2821345370984857936 -0.15773342370601101115 0.10866018962631165956 4.931493828352172315 1.6590527552087086516 0.96263788805419847616;-1.8169664653744350691 3.4890481527388783611 -5.7895430140322146073 8.1103976586300365881 0.70841416731522532935 -0.7064618100621050667 -1.5689177333293269356 1.1267765525904760437 -5.4406617880278496102 -7.301747512076746105;-7.7624427339037422868 -21.303639882007107786 7.8505384325302243198 6.4871537679572748303 9.5735141619647450284 -2.9566002016033925415 1.2395620947982106674 11.703379452258722893 9.9767026821588196128 -3.9072726772139168006;0.68394971763778134033 -0.64680492224378371979 2.442605692307726617 -7.2654980875275194663 -3.0497989837809220681 -4.9404452217072005737 1.39658228690403452 -2.2523085020913096166 -10.812142646756472075 -3.4280172766518592908];

% Layer 3
b3 = 0.25791432070792680298;
LW3_2 = [0.69606475960431291039 0.19639086787212436946 0.25124191366931575287 2.5619212204264507626 3.2823044108093704097 -1.4003436365749646342 0.29145108308289013888 0.073758617975188511817 -0.31750372553522410168 -0.20238900906835929905];

% Output 1
y1_step1.ymin = -1;
y1_step1.gain = 0.00612908122568115;
y1_step1.xoffset = 89.6956371703064;

% ===== SIMULATION ========

% Format Input Arguments
isCellX = iscell(X);
if ~isCellX
  X = {X};
end

% Dimensions
TS = size(X,2); % timesteps
if ~isempty(X)
  Q = size(X{1},2); % samples/series
else
  Q = 0;
end

% Allocate Outputs
Y = cell(1,TS);

% Time loop
for ts=1:TS

    % Input 1
    Xp1 = mapminmax_apply(X{1,ts},x1_step1);
    
    % Layer 1
    a1 = tansig_apply(repmat(b1,1,Q) + IW1_1*Xp1);
    
    % Layer 2
    a2 = tansig_apply(repmat(b2,1,Q) + LW2_1*a1);
    
    % Layer 3
    a3 = repmat(b3,1,Q) + LW3_2*a2;
    
    % Output 1
    Y{1,ts} = mapminmax_reverse(a3,y1_step1);
end

% Final Delay States
Xf = cell(1,0);
Af = cell(3,0);

% Format Output Arguments
if ~isCellX
  Y = cell2mat(Y);
end
end

% ===== MODULE FUNCTIONS ========

% Map Minimum and Maximum Input Processing Function
function y = mapminmax_apply(x,settings)
  y = bsxfun(@minus,x,settings.xoffset);
  y = bsxfun(@times,y,settings.gain);
  y = bsxfun(@plus,y,settings.ymin);
end

% Sigmoid Symmetric Transfer Function
function a = tansig_apply(n,~)
  a = 2 ./ (1 + exp(-2*n)) - 1;
end

% Map Minimum and Maximum Output Reverse-Processing Function
function x = mapminmax_reverse(y,settings)
  x = bsxfun(@minus,y,settings.ymin);
  x = bsxfun(@rdivide,x,settings.gain);
  x = bsxfun(@plus,x,settings.xoffset);
end
